<?xml version="1.0"?>
<opencv_storage>
<stage16>
  <maxWeakCount>100</maxWeakCount>
  <stageThreshold>-1.3178454637527466e+00</stageThreshold>
  <weakClassifiers>
    <_>
      <internalNodes>
        0 -1 5104 -1.1665353551506996e-02</internalNodes>
      <leafValues>
        -4.8314607143402100e-01 -5.5303718894720078e-02</leafValues></_>
    <_>
      <internalNodes>
        0 -1 17 -1.6623632982373238e-03</internalNodes>
      <leafValues>
        2.5266548991203308e-01 -1.2871846556663513e-01</leafValues></_>
    <_>
      <internalNodes>
        0 -1 7 4.4136475771665573e-03</internalNodes>
      <leafValues>
        -6.0411520302295685e-02 4.5564195513725281e-01</leafValues></_>
    <_>
      <internalNodes>
        0 -1 169144 1.6796164214611053e-02</internalNodes>
      <leafValues>
        -6.3665874302387238e-02 3.1064352393150330e-01</leafValues></_>
    <_>
      <internalNodes>
        0 -1 150718 1.2331865727901459e-02</internalNodes>
      <leafValues>
        -5.8296401053667068e-02 4.0407371520996094e-01</leafValues></_>
    <_>
      <internalNodes>
        0 -1 138584 -2.0270843378966674e-05</internalNodes>
      <leafValues>
        1.3011765480041504e-01 -1.5439723432064056e-01</leafValues></_>
    <_>
      <internalNodes>
        0 -1 100 5.0692940130829811e-03</internalNodes>
      <leafValues>
        5.3754456341266632e-02 -7.0083236694335938e-01</leafValues></_>
    <_>
      <internalNodes>
        0 -1 14928 -6.1750961467623711e-03</internalNodes>
      <leafValues>
        2.0428901910781860e-01 -9.6829243004322052e-02</leafValues></_>
    <_>
      <internalNodes>
        0 -1 60686 6.9164084270596504e-03</internalNodes>
      <leafValues>
        -9.3246243894100189e-02 2.3473335802555084e-01</leafValues></_>
    <_>
      <internalNodes>
        0 -1 89387 -3.7912785774096847e-04</internalNodes>
      <leafValues>
        2.2166877985000610e-01 -6.7241430282592773e-02</leafValues></_>
    <_>
      <internalNodes>
        0 -1 200 5.3824354836251587e-05</internalNodes>
      <leafValues>
        -1.5707191824913025e-01 1.0944218933582306e-01</leafValues></_>
    <_>
      <internalNodes>
        0 -1 17290 2.6215827092528343e-03</internalNodes>
      <leafValues>
        6.1263579875230789e-02 -2.6289048790931702e-01</leafValues></_>
    <_>
      <internalNodes>
        0 -1 168712 -2.6807007379829884e-03</internalNodes>
      <leafValues>
        -3.1264126300811768e-01 5.4333534091711044e-02</leafValues></_>
    <_>
      <internalNodes>
        0 -1 9672 6.6665763733908534e-04</internalNodes>
      <leafValues>
        -1.0934650897979736e-01 1.6239419579505920e-01</leafValues></_>
    <_>
      <internalNodes>
        0 -1 108 -1.4218152500689030e-03</internalNodes>
      <leafValues>
        1.7135247588157654e-01 -9.4063751399517059e-02</leafValues></_>
    <_>
      <internalNodes>
        0 -1 164909 -8.8782925158739090e-03</internalNodes>
      <leafValues>
        -9.2833441495895386e-01 1.2509972788393497e-02</leafValues></_>
    <_>
      <internalNodes>
        0 -1 9 2.8640727978199720e-03</internalNodes>
      <leafValues>
        2.1677264943718910e-02 -5.6116849184036255e-01</leafValues></_>
    <_>
      <internalNodes>
        0 -1 168617 -1.8919957801699638e-03</internalNodes>
      <leafValues>
        2.3527893424034119e-01 -6.4742803573608398e-02</leafValues></_>
    <_>
      <internalNodes>
        0 -1 171924 8.6178984493017197e-03</internalNodes>
      <leafValues>
        3.8429956883192062e-02 -4.5399627089500427e-01</leafValues></_>
    <_>
      <internalNodes>
        0 -1 171942 -2.5640577077865601e-03</internalNodes>
      <leafValues>
        2.8416743874549866e-01 -6.4550794661045074e-02</leafValues></_>
    <_>
      <internalNodes>
        0 -1 34154 -1.4115774631500244e-01</internalNodes>
      <leafValues>
        1.7657861113548279e-01 -1.0259667038917542e-01</leafValues></_>
    <_>
      <internalNodes>
        0 -1 57190 2.5529786944389343e-01</internalNodes>
      <leafValues>
        -2.5341618806123734e-02 6.7581379413604736e-01</leafValues></_>
    <_>
      <internalNodes>
        0 -1 16626 -5.0065445248037577e-04</internalNodes>
      <leafValues>
        -2.6611974835395813e-01 5.5677242577075958e-02</leafValues></_>
    <_>
      <internalNodes>
        0 -1 171917 -8.9163950178772211e-04</internalNodes>
      <leafValues>
        2.2894757986068726e-01 -6.5673887729644775e-02</leafValues></_>
    <_>
      <internalNodes>
        0 -1 139728 -4.9573485739529133e-04</internalNodes>
      <leafValues>
        -2.5967600941658020e-01 5.0452545285224915e-02</leafValues></_>
    <_>
      <internalNodes>
        0 -1 168594 -2.3243194445967674e-03</internalNodes>
      <leafValues>
        2.6790049672126770e-01 -5.2666891366243362e-02</leafValues></_>
    <_>
      <internalNodes>
        0 -1 52252 1.3678246736526489e-01</internalNodes>
      <leafValues>
        1.5116218477487564e-02 -8.1818115711212158e-01</leafValues></_>
    <_>
      <internalNodes>
        0 -1 110618 -1.0452866263221949e-05</internalNodes>
      <leafValues>
        9.2296198010444641e-02 -1.4313952624797821e-01</leafValues></_>
    <_>
      <internalNodes>
        0 -1 103087 -4.1401069611310959e-03</internalNodes>
      <leafValues>
        1.8341855704784393e-01 -7.0913635194301605e-02</leafValues></_>
    <_>
      <internalNodes>
        0 -1 33522 -5.8036204427480698e-03</internalNodes>
      <leafValues>
        -1.9541515409946442e-01 7.1999914944171906e-02</leafValues></_>
    <_>
      <internalNodes>
        0 -1 65527 2.2362990421243012e-04</internalNodes>
      <leafValues>
        5.9078928083181381e-02 -2.4883244931697845e-01</leafValues></_>
    <_>
      <internalNodes>
        0 -1 36094 1.8500930309528485e-05</internalNodes>
      <leafValues>
        -9.7222849726676941e-02 1.3330946862697601e-01</leafValues></_>
    <_>
      <internalNodes>
        0 -1 378 4.2468734085559845e-02</internalNodes>
      <leafValues>
        4.4959809631109238e-02 -2.7799782156944275e-01</leafValues></_>
    <_>
      <internalNodes>
        0 -1 1532 3.2899670302867889e-02</internalNodes>
      <leafValues>
        -6.4918883144855499e-02 2.2139099240303040e-01</leafValues></_>
    <_>
      <internalNodes>
        0 -1 2588 -1.4771753922104836e-02</internalNodes>
      <leafValues>
        1.5634942054748535e-01 -1.1753141880035400e-01</leafValues></_>
    <_>
      <internalNodes>
        0 -1 49621 9.7708981484174728e-03</internalNodes>
      <leafValues>
        -7.2396710515022278e-02 2.0062305033206940e-01</leafValues></_>
    <_>
      <internalNodes>
        0 -1 133042 1.7785860109142959e-04</internalNodes>
      <leafValues>
        7.2424516081809998e-02 -2.5901642441749573e-01</leafValues></_>
    <_>
      <internalNodes>
        0 -1 153879 -4.3213706463575363e-02</internalNodes>
      <leafValues>
        -8.9677172899246216e-01 8.7434006854891777e-03</leafValues></_>
    <_>
      <internalNodes>
        0 -1 102259 -4.3904891936108470e-04</internalNodes>
      <leafValues>
        1.3826373219490051e-01 -9.4650268554687500e-02</leafValues></_>
    <_>
      <internalNodes>
        0 -1 55348 -2.9246920719742775e-02</internalNodes>
      <leafValues>
        -1. 1.0009044781327248e-02</leafValues></_>
    <_>
      <internalNodes>
        0 -1 135983 7.9645903315395117e-04</internalNodes>
      <leafValues>
        -9.1522477567195892e-02 1.3606785237789154e-01</leafValues></_>
    <_>
      <internalNodes>
        0 -1 141388 -1.3228351599536836e-04</internalNodes>
      <leafValues>
        -1.6622702777385712e-01 8.2267992198467255e-02</leafValues></_>
    <_>
      <internalNodes>
        0 -1 123194 9.5973064162535593e-06</internalNodes>
      <leafValues>
        -1.0989947617053986e-01 1.1395508795976639e-01</leafValues></_>
    <_>
      <internalNodes>
        0 -1 51516 8.0775581300258636e-03</internalNodes>
      <leafValues>
        5.8204516768455505e-02 -2.2018672525882721e-01</leafValues></_>
    <_>
      <internalNodes>
        0 -1 155255 -5.0101326778531075e-03</internalNodes>
      <leafValues>
        -3.8567626476287842e-01 3.3961176872253418e-02</leafValues></_>
    <_>
      <internalNodes>
        0 -1 117234 -3.3099215477705002e-02</internalNodes>
      <leafValues>
        1.4800697565078735e-01 -9.2350147664546967e-02</leafValues></_>
    <_>
      <internalNodes>
        0 -1 73765 -6.7243594676256180e-03</internalNodes>
      <leafValues>
        2.0938789844512939e-01 -6.3930302858352661e-02</leafValues></_>
    <_>
      <internalNodes>
        0 -1 171967 1.6119191423058510e-02</internalNodes>
      <leafValues>
        -2.9408175498247147e-02 4.5299452543258667e-01</leafValues></_>
    <_>
      <internalNodes>
        0 -1 101259 9.3636699602939188e-06</internalNodes>
      <leafValues>
        -1.0349801927804947e-01 1.3246631622314453e-01</leafValues></_>
    <_>
      <internalNodes>
        0 -1 60681 -2.1221726201474667e-03</internalNodes>
      <leafValues>
        1.7268675565719604e-01 -7.2451844811439514e-02</leafValues></_>
    <_>
      <internalNodes>
        0 -1 76112 -1.3087448314763606e-04</internalNodes>
      <leafValues>
        -1.8903775513172150e-01 6.5794184803962708e-02</leafValues></_>
    <_>
      <internalNodes>
        0 -1 173868 -6.9947941228747368e-03</internalNodes>
      <leafValues>
        2.2623270750045776e-01 -5.7932227849960327e-02</leafValues></_>
    <_>
      <internalNodes>
        0 -1 171909 -8.9402776211500168e-03</internalNodes>
      <leafValues>
        -6.1885005235671997e-01 1.7576055601239204e-02</leafValues></_>
    <_>
      <internalNodes>
        0 -1 175619 3.0808284645900130e-04</internalNodes>
      <leafValues>
        7.3325261473655701e-02 -2.1201887726783752e-01</leafValues></_>
    <_>
      <internalNodes>
        0 -1 33104 2.0176660269498825e-02</internalNodes>
      <leafValues>
        -2.9997520148754120e-02 3.8649359345436096e-01</leafValues></_>
    <_>
      <internalNodes>
        0 -1 175592 -6.5375678241252899e-04</internalNodes>
      <leafValues>
        -2.2082868218421936e-01 6.4440824091434479e-02</leafValues></_>
    <_>
      <internalNodes>
        0 -1 4247 4.3591847643256187e-03</internalNodes>
      <leafValues>
        -1.6935328021645546e-02 7.3798185586929321e-01</leafValues></_>
    <_>
      <internalNodes>
        0 -1 109 4.1505191475152969e-03</internalNodes>
      <leafValues>
        3.9629984647035599e-02 -3.3273696899414062e-01</leafValues></_>
    <_>
      <internalNodes>
        0 -1 175452 2.8441739268600941e-03</internalNodes>
      <leafValues>
        -7.8800916671752930e-02 1.5551076829433441e-01</leafValues></_>
    <_>
      <internalNodes>
        0 -1 175247 -7.1498367469757795e-04</internalNodes>
      <leafValues>
        1.7435988783836365e-01 -7.5028009712696075e-02</leafValues></_>
    <_>
      <internalNodes>
        0 -1 13704 1.0839170962572098e-01</internalNodes>
      <leafValues>
        -5.9884477406740189e-02 2.3831230401992798e-01</leafValues></_>
    <_>
      <internalNodes>
        0 -1 37852 -9.1119692660868168e-04</internalNodes>
      <leafValues>
        1.4213009178638458e-01 -8.5953906178474426e-02</leafValues></_>
    <_>
      <internalNodes>
        0 -1 4593 3.2433955930173397e-03</internalNodes>
      <leafValues>
        -9.1183558106422424e-02 1.4961040019989014e-01</leafValues></_>
    <_>
      <internalNodes>
        0 -1 48792 9.5245689153671265e-03</internalNodes>
      <leafValues>
        -2.2997580468654633e-02 6.1627471446990967e-01</leafValues></_>
    <_>
      <internalNodes>
        0 -1 17108 9.4661756884306669e-04</internalNodes>
      <leafValues>
        -1.0343740135431290e-01 1.2584605813026428e-01</leafValues></_>
    <_>
      <internalNodes>
        0 -1 51463 3.4305377630516887e-04</internalNodes>
      <leafValues>
        4.7219112515449524e-02 -2.8755629062652588e-01</leafValues></_>
    <_>
      <internalNodes>
        0 -1 89489 -8.9665065752342343e-04</internalNodes>
      <leafValues>
        2.2978921234607697e-01 -5.5160988122224808e-02</leafValues></_>
    <_>
      <internalNodes>
        0 -1 48948 -4.9385502934455872e-02</internalNodes>
      <leafValues>
        -5.9706914424896240e-01 1.9156688824295998e-02</leafValues></_>
    <_>
      <internalNodes>
        0 -1 342 1.0661087930202484e-01</internalNodes>
      <leafValues>
        1.2389861978590488e-02 -8.2080459594726562e-01</leafValues></_>
    <_>
      <internalNodes>
        0 -1 10905 -9.4309298219741322e-06</internalNodes>
      <leafValues>
        1.0339622944593430e-01 -1.1707948893308640e-01</leafValues></_>
    <_>
      <internalNodes>
        0 -1 59029 -4.7271088697016239e-03</internalNodes>
      <leafValues>
        -6.7882233858108521e-01 1.9032301381230354e-02</leafValues></_>
    <_>
      <internalNodes>
        0 -1 48788 -9.9684519227594137e-04</internalNodes>
      <leafValues>
        1.6903540492057800e-01 -7.7636204659938812e-02</leafValues></_>
    <_>
      <internalNodes>
        0 -1 16403 -4.9128355458378792e-03</internalNodes>
      <leafValues>
        2.6133507490158081e-01 -4.8582602292299271e-02</leafValues></_>
    <_>
      <internalNodes>
        0 -1 13867 8.0752745270729065e-03</internalNodes>
      <leafValues>
        2.4332469329237938e-02 -5.2659285068511963e-01</leafValues></_>
    <_>
      <internalNodes>
        0 -1 164792 -2.9954481869935989e-02</internalNodes>
      <leafValues>
        -5.2314019203186035e-01 1.7584191635251045e-02</leafValues></_>
    <_>
      <internalNodes>
        0 -1 162913 -7.2816153988242149e-03</internalNodes>
      <leafValues>
        1.1297242343425751e-01 -1.1057530343532562e-01</leafValues></_>
    <_>
      <internalNodes>
        0 -1 167386 -1.7957538366317749e-02</internalNodes>
      <leafValues>
        2.5244975090026855e-01 -5.9008892625570297e-02</leafValues></_>
    <_>
      <internalNodes>
        0 -1 62900 -3.0078357085585594e-03</internalNodes>
      <leafValues>
        2.0875827968120575e-01 -5.7276945561170578e-02</leafValues></_>
    <_>
      <internalNodes>
        0 -1 17102 7.4001215398311615e-03</internalNodes>
      <leafValues>
        -2.7545046061277390e-02 4.2359966039657593e-01</leafValues></_>
    <_>
      <internalNodes>
        0 -1 17112 -2.4111217499012128e-05</internalNodes>
      <leafValues>
        1.0742978751659393e-01 -1.3398793339729309e-01</leafValues></_>
    <_>
      <internalNodes>
        0 -1 14775 -3.4585988032631576e-04</internalNodes>
      <leafValues>
        -2.6412904262542725e-01 4.8837020993232727e-02</leafValues></_>
    <_>
      <internalNodes>
        0 -1 12226 2.8186710551381111e-03</internalNodes>
      <leafValues>
        -7.5024500489234924e-02 1.8434248864650726e-01</leafValues></_>
    <_>
      <internalNodes>
        0 -1 26267 -8.7707445025444031e-02</internalNodes>
      <leafValues>
        3.2082143425941467e-01 -4.6163182705640793e-02</leafValues></_>
    <_>
      <internalNodes>
        0 -1 16956 -2.2469522431492805e-02</internalNodes>
      <leafValues>
        1.8195402622222900e-01 -7.1541689336299896e-02</leafValues></_>
    <_>
      <internalNodes>
        0 -1 175630 6.2938695773482323e-03</internalNodes>
      <leafValues>
        3.6611862480640411e-02 -3.5254892706871033e-01</leafValues></_>
    <_>
      <internalNodes>
        0 -1 67815 -8.9825112372636795e-03</internalNodes>
      <leafValues>
        1.6600023210048676e-01 -7.9639784991741180e-02</leafValues></_>
    <_>
      <internalNodes>
        0 -1 104 -1.4023037510924041e-04</internalNodes>
      <leafValues>
        -1.5509758889675140e-01 8.8175058364868164e-02</leafValues></_>
    <_>
      <internalNodes>
        0 -1 89296 -3.9792761206626892e-02</internalNodes>
      <leafValues>
        3.3905643224716187e-01 -4.2928908020257950e-02</leafValues></_>
    <_>
      <internalNodes>
        0 -1 17079 5.2164727821946144e-03</internalNodes>
      <leafValues>
        5.0465185195207596e-02 -2.8890851140022278e-01</leafValues></_>
    <_>
      <internalNodes>
        0 -1 33080 -2.2435127757489681e-03</internalNodes>
      <leafValues>
        2.0071868598461151e-01 -7.2826296091079712e-02</leafValues></_>
    <_>
      <internalNodes>
        0 -1 101483 7.2149842977523804e-02</internalNodes>
      <leafValues>
        -2.4924995377659798e-02 5.3938472270965576e-01</leafValues></_>
    <_>
      <internalNodes>
        0 -1 126598 -6.5593505278229713e-03</internalNodes>
      <leafValues>
        1.4698515832424164e-01 -1.0449786484241486e-01</leafValues></_>
    <_>
      <internalNodes>
        0 -1 175782 -4.4019222259521484e-03</internalNodes>
      <leafValues>
        -4.7974613308906555e-01 2.9151568189263344e-02</leafValues></_>
    <_>
      <internalNodes>
        0 -1 139723 -4.5909020118415356e-03</internalNodes>
      <leafValues>
        1.5295220911502838e-01 -9.6507005393505096e-02</leafValues></_>
    <_>
      <internalNodes>
        0 -1 114658 6.2493520090356469e-05</internalNodes>
      <leafValues>
        6.2455669045448303e-02 -2.0023378729820251e-01</leafValues></_>
    <_>
      <internalNodes>
        0 -1 1529 7.0449709892272949e-03</internalNodes>
      <leafValues>
        -7.3194041848182678e-02 1.9285744428634644e-01</leafValues></_>
    <_>
      <internalNodes>
        0 -1 17024 1.5431639621965587e-04</internalNodes>
      <leafValues>
        -9.3566536903381348e-02 1.4376021921634674e-01</leafValues></_>
    <_>
      <internalNodes>
        0 -1 88847 -1.8264075741171837e-02</internalNodes>
      <leafValues>
        -4.1453364491462708e-01 3.1714912503957748e-02</leafValues></_>
    <_>
      <internalNodes>
        0 -1 81242 2.4617763119749725e-04</internalNodes>
      <leafValues>
        6.1621520668268204e-02 -1.9076484441757202e-01</leafValues></_>
    <_>
      <internalNodes>
        0 -1 405 8.2366488641127944e-04</internalNodes>
      <leafValues>
        -1.2359499931335449e-01 1.0468664765357971e-01</leafValues></_></weakClassifiers></stage16>
</opencv_storage>
