<?xml version="1.0"?>
<opencv_storage>
<stage18>
  <maxWeakCount>100</maxWeakCount>
  <stageThreshold>-1.3620127439498901e+00</stageThreshold>
  <weakClassifiers>
    <_>
      <internalNodes>
        0 -1 142124 -2.8274293988943100e-02</internalNodes>
      <leafValues>
        -5.1724135875701904e-01 -8.1110805273056030e-02</leafValues></_>
    <_>
      <internalNodes>
        0 -1 174289 -3.0556572601199150e-02</internalNodes>
      <leafValues>
        2.0032745599746704e-01 -1.4886562526226044e-01</leafValues></_>
    <_>
      <internalNodes>
        0 -1 108036 1.8760879337787628e-01</internalNodes>
      <leafValues>
        -5.2998900413513184e-02 4.0076315402984619e-01</leafValues></_>
    <_>
      <internalNodes>
        0 -1 19160 -2.9151258058845997e-03</internalNodes>
      <leafValues>
        2.8140962123870850e-01 -7.1307182312011719e-02</leafValues></_>
    <_>
      <internalNodes>
        0 -1 164027 9.7471950575709343e-03</internalNodes>
      <leafValues>
        -1.4916698634624481e-01 1.7664927244186401e-01</leafValues></_>
    <_>
      <internalNodes>
        0 -1 32 -7.2142211720347404e-03</internalNodes>
      <leafValues>
        2.5222742557525635e-01 -1.1223009228706360e-01</leafValues></_>
    <_>
      <internalNodes>
        0 -1 175975 -6.0039535164833069e-03</internalNodes>
      <leafValues>
        -4.2139795422554016e-01 7.2528295218944550e-02</leafValues></_>
    <_>
      <internalNodes>
        0 -1 112367 -9.5984321087598801e-03</internalNodes>
      <leafValues>
        -4.0957942605018616e-01 2.6499472558498383e-02</leafValues></_>
    <_>
      <internalNodes>
        0 -1 147452 -3.6238203756511211e-04</internalNodes>
      <leafValues>
        1.9975832104682922e-01 -8.6957946419715881e-02</leafValues></_>
    <_>
      <internalNodes>
        0 -1 154102 -5.5864744354039431e-04</internalNodes>
      <leafValues>
        2.0060630142688751e-01 -8.9923106133937836e-02</leafValues></_>
    <_>
      <internalNodes>
        0 -1 134057 -2.7431191410869360e-03</internalNodes>
      <leafValues>
        -2.7233481407165527e-01 7.9938039183616638e-02</leafValues></_>
    <_>
      <internalNodes>
        0 -1 34409 5.2019923925399780e-02</internalNodes>
      <leafValues>
        1.9939476624131203e-02 -4.4975334405899048e-01</leafValues></_>
    <_>
      <internalNodes>
        0 -1 1994 -1.1599741876125336e-01</internalNodes>
      <leafValues>
        -6.6497415304183960e-01 2.1903190761804581e-02</leafValues></_>
    <_>
      <internalNodes>
        0 -1 134487 3.0227345996536314e-04</internalNodes>
      <leafValues>
        6.3147500157356262e-02 -2.1987237036228180e-01</leafValues></_>
    <_>
      <internalNodes>
        0 -1 80898 2.5033999234437943e-02</internalNodes>
      <leafValues>
        -6.7096441984176636e-02 2.7037119865417480e-01</leafValues></_>
    <_>
      <internalNodes>
        0 -1 116602 1.3301067519932985e-03</internalNodes>
      <leafValues>
        -9.6727594733238220e-02 1.7605973780155182e-01</leafValues></_>
    <_>
      <internalNodes>
        0 -1 105953 -2.3019907996058464e-02</internalNodes>
      <leafValues>
        1.8161813914775848e-01 -1.1042178422212601e-01</leafValues></_>
    <_>
      <internalNodes>
        0 -1 98427 -1.5111076645553112e-03</internalNodes>
      <leafValues>
        1.4965677261352539e-01 -9.9805176258087158e-02</leafValues></_>
    <_>
      <internalNodes>
        0 -1 125255 1.0065695270895958e-02</internalNodes>
      <leafValues>
        2.7897711843252182e-02 -5.0925457477569580e-01</leafValues></_>
    <_>
      <internalNodes>
        0 -1 151321 -3.4380201250314713e-03</internalNodes>
      <leafValues>
        1.5800713002681732e-01 -9.5488891005516052e-02</leafValues></_>
    <_>
      <internalNodes>
        0 -1 103310 3.2021233346313238e-04</internalNodes>
      <leafValues>
        5.1927000284194946e-02 -2.7106669545173645e-01</leafValues></_>
    <_>
      <internalNodes>
        0 -1 171758 -1.2552186381071806e-03</internalNodes>
      <leafValues>
        1.7058482766151428e-01 -8.3873055875301361e-02</leafValues></_>
    <_>
      <internalNodes>
        0 -1 5210 9.4898650786490180e-06</internalNodes>
      <leafValues>
        -1.1909201741218567e-01 1.1595005542039871e-01</leafValues></_>
    <_>
      <internalNodes>
        0 -1 159697 -3.3696909667924047e-04</internalNodes>
      <leafValues>
        1.5465770661830902e-01 -8.9402146637439728e-02</leafValues></_>
    <_>
      <internalNodes>
        0 -1 160361 3.4994049929082394e-04</internalNodes>
      <leafValues>
        5.9477213770151138e-02 -2.6485237479209900e-01</leafValues></_>
    <_>
      <internalNodes>
        0 -1 145679 4.7748954966664314e-03</internalNodes>
      <leafValues>
        -9.0715020895004272e-02 1.5991017222404480e-01</leafValues></_>
    <_>
      <internalNodes>
        0 -1 19529 2.1860040724277496e-03</internalNodes>
      <leafValues>
        -8.6218364536762238e-02 1.7578822374343872e-01</leafValues></_>
    <_>
      <internalNodes>
        0 -1 8171 -1.9119173288345337e-02</internalNodes>
      <leafValues>
        1.8615162372589111e-01 -8.6585298180580139e-02</leafValues></_>
    <_>
      <internalNodes>
        0 -1 164912 -2.2600541342399083e-05</internalNodes>
      <leafValues>
        1.2022479623556137e-01 -1.2542200088500977e-01</leafValues></_>
    <_>
      <internalNodes>
        0 -1 164914 6.6910474561154842e-04</internalNodes>
      <leafValues>
        4.8006061464548111e-02 -3.3538684248924255e-01</leafValues></_>
    <_>
      <internalNodes>
        0 -1 112369 -1.5024626627564430e-03</internalNodes>
      <leafValues>
        2.2188781201839447e-01 -7.8922376036643982e-02</leafValues></_>
    <_>
      <internalNodes>
        0 -1 73238 -9.9697802215814590e-03</internalNodes>
      <leafValues>
        -7.4417263269424438e-01 2.0240463316440582e-02</leafValues></_>
    <_>
      <internalNodes>
        0 -1 29676 -1.5071447938680649e-02</internalNodes>
      <leafValues>
        2.4871471524238586e-01 -5.5304802954196930e-02</leafValues></_>
    <_>
      <internalNodes>
        0 -1 137721 -5.6062922812998295e-03</internalNodes>
      <leafValues>
        -2.5490212440490723e-01 5.6923400610685349e-02</leafValues></_>
    <_>
      <internalNodes>
        0 -1 17332 -5.8577291667461395e-02</internalNodes>
      <leafValues>
        -5.2894681692123413e-01 2.1459057927131653e-02</leafValues></_>
    <_>
      <internalNodes>
        0 -1 159086 2.7361165266484022e-03</internalNodes>
      <leafValues>
        4.7418162226676941e-02 -2.5847706198692322e-01</leafValues></_>
    <_>
      <internalNodes>
        0 -1 56227 1.6114354133605957e-01</internalNodes>
      <leafValues>
        -1.5713956207036972e-02 7.5140339136123657e-01</leafValues></_>
    <_>
      <internalNodes>
        0 -1 1608 -9.0182665735483170e-03</internalNodes>
      <leafValues>
        4.8344659805297852e-01 -2.1478122100234032e-02</leafValues></_>
    <_>
      <internalNodes>
        0 -1 18154 -2.3407797561958432e-04</internalNodes>
      <leafValues>
        -2.2284908592700958e-01 6.0485351830720901e-02</leafValues></_>
    <_>
      <internalNodes>
        0 -1 17099 3.6875512450933456e-03</internalNodes>
      <leafValues>
        1.7701942473649979e-02 -6.5398049354553223e-01</leafValues></_>
    <_>
      <internalNodes>
        0 -1 101357 7.9376902431249619e-04</internalNodes>
      <leafValues>
        -7.9969167709350586e-02 1.5665349364280701e-01</leafValues></_>
    <_>
      <internalNodes>
        0 -1 168708 1.4190943911671638e-03</internalNodes>
      <leafValues>
        3.6612901836633682e-02 -3.4334236383438110e-01</leafValues></_>
    <_>
      <internalNodes>
        0 -1 174587 2.4169240146875381e-02</internalNodes>
      <leafValues>
        1.8163854256272316e-02 -6.1891448497772217e-01</leafValues></_>
    <_>
      <internalNodes>
        0 -1 18026 -2.1778652444481850e-03</internalNodes>
      <leafValues>
        1.5343108773231506e-01 -8.0303132534027100e-02</leafValues></_>
    <_>
      <internalNodes>
        0 -1 25455 -4.1935448534786701e-03</internalNodes>
      <leafValues>
        -4.4058054685592651e-01 2.6398411020636559e-02</leafValues></_>
    <_>
      <internalNodes>
        0 -1 25961 -1.0358369350433350e-01</internalNodes>
      <leafValues>
        -7.4659025669097900e-01 1.3882511295378208e-02</leafValues></_>
    <_>
      <internalNodes>
        0 -1 10149 -4.7757672145962715e-03</internalNodes>
      <leafValues>
        1.1086539924144745e-01 -1.1124392598867416e-01</leafValues></_>
    <_>
      <internalNodes>
        0 -1 58802 -2.4832305498421192e-03</internalNodes>
      <leafValues>
        1.7560905218124390e-01 -6.3034996390342712e-02</leafValues></_>
    <_>
      <internalNodes>
        0 -1 155850 -1.3842419721186161e-03</internalNodes>
      <leafValues>
        -1.2537513673305511e-01 1.1918695271015167e-01</leafValues></_>
    <_>
      <internalNodes>
        0 -1 104839 -1.1386518925428391e-01</internalNodes>
      <leafValues>
        -5.2947479486465454e-01 2.1446272730827332e-02</leafValues></_>
    <_>
      <internalNodes>
        0 -1 100042 -3.1585708260536194e-02</internalNodes>
      <leafValues>
        1.4760245382785797e-01 -9.1504327952861786e-02</leafValues></_>
    <_>
      <internalNodes>
        0 -1 2198 2.2768153576180339e-04</internalNodes>
      <leafValues>
        4.9715250730514526e-02 -2.4461700022220612e-01</leafValues></_>
    <_>
      <internalNodes>
        0 -1 28547 -1.4054038329049945e-03</internalNodes>
      <leafValues>
        1.8159732222557068e-01 -6.5365649759769440e-02</leafValues></_>
    <_>
      <internalNodes>
        0 -1 9047 -2.0868871361017227e-02</internalNodes>
      <leafValues>
        -5.3485274314880371e-01 2.1201027557253838e-02</leafValues></_>
    <_>
      <internalNodes>
        0 -1 53994 -5.9048528783023357e-03</internalNodes>
      <leafValues>
        1.2444342672824860e-01 -1.0192586481571198e-01</leafValues></_>
    <_>
      <internalNodes>
        0 -1 33217 -4.2308312840759754e-03</internalNodes>
      <leafValues>
        1.5104722976684570e-01 -8.5581436753273010e-02</leafValues></_>
    <_>
      <internalNodes>
        0 -1 70124 -1.0253525339066982e-02</internalNodes>
      <leafValues>
        3.4629184007644653e-01 -4.2282503098249435e-02</leafValues></_>
    <_>
      <internalNodes>
        0 -1 83737 -3.3267301041632891e-03</internalNodes>
      <leafValues>
        -3.8952440023422241e-01 3.7105981260538101e-02</leafValues></_>
    <_>
      <internalNodes>
        0 -1 47011 1.1392805754439905e-04</internalNodes>
      <leafValues>
        8.2738474011421204e-02 -1.4707405865192413e-01</leafValues></_>
    <_>
      <internalNodes>
        0 -1 122512 -1.8280029762536287e-03</internalNodes>
      <leafValues>
        2.7379164099693298e-01 -4.5271486043930054e-02</leafValues></_>
    <_>
      <internalNodes>
        0 -1 139742 -3.4840176813304424e-03</internalNodes>
      <leafValues>
        -3.0818018317222595e-01 4.1086532175540924e-02</leafValues></_>
    <_>
      <internalNodes>
        0 -1 16157 -2.5658390950411558e-03</internalNodes>
      <leafValues>
        2.0802673697471619e-01 -6.0692965984344482e-02</leafValues></_>
    <_>
      <internalNodes>
        0 -1 19208 2.1201357245445251e-02</internalNodes>
      <leafValues>
        1.7872150987386703e-02 -6.1818325519561768e-01</leafValues></_>
    <_>
      <internalNodes>
        0 -1 17092 -6.2383944168686867e-04</internalNodes>
      <leafValues>
        1.6032849252223969e-01 -7.2235673666000366e-02</leafValues></_>
    <_>
      <internalNodes>
        0 -1 80733 -3.1808782368898392e-02</internalNodes>
      <leafValues>
        2.7808800339698792e-01 -4.2772445827722549e-02</leafValues></_>
    <_>
      <internalNodes>
        0 -1 17320 2.2366572171449661e-02</internalNodes>
      <leafValues>
        4.2958103120326996e-02 -3.1978857517242432e-01</leafValues></_>
    <_>
      <internalNodes>
        0 -1 35316 1.0053357073047664e-05</internalNodes>
      <leafValues>
        -1.2914517521858215e-01 1.0144630074501038e-01</leafValues></_>
    <_>
      <internalNodes>
        0 -1 18554 1.2519640848040581e-02</internalNodes>
      <leafValues>
        -6.4247936010360718e-02 2.1044011414051056e-01</leafValues></_>
    <_>
      <internalNodes>
        0 -1 105710 2.9685697518289089e-04</internalNodes>
      <leafValues>
        7.2955347597599030e-02 -2.0687595009803772e-01</leafValues></_>
    <_>
      <internalNodes>
        0 -1 88019 -9.5818977570161223e-06</internalNodes>
      <leafValues>
        1.0498884320259094e-01 -1.1956942826509476e-01</leafValues></_>
    <_>
      <internalNodes>
        0 -1 158636 -9.4544757303083315e-06</internalNodes>
      <leafValues>
        1.0408212989568710e-01 -1.1470427364110947e-01</leafValues></_>
    <_>
      <internalNodes>
        0 -1 60610 -6.9931417703628540e-02</internalNodes>
      <leafValues>
        -8.9886707067489624e-01 1.0880597867071629e-02</leafValues></_>
    <_>
      <internalNodes>
        0 -1 167235 -3.6867469549179077e-02</internalNodes>
      <leafValues>
        4.1658526659011841e-01 -3.0405307188630104e-02</leafValues></_>
    <_>
      <internalNodes>
        0 -1 167844 -1.1650065425783396e-03</internalNodes>
      <leafValues>
        -3.7284654378890991e-01 3.5933285951614380e-02</leafValues></_>
    <_>
      <internalNodes>
        0 -1 175911 1.6207289882004261e-03</internalNodes>
      <leafValues>
        -9.0852923691272736e-02 1.3147668540477753e-01</leafValues></_>
    <_>
      <internalNodes>
        0 -1 152675 -1.1800171807408333e-02</internalNodes>
      <leafValues>
        -7.8392452001571655e-01 1.3924171216785908e-02</leafValues></_>
    <_>
      <internalNodes>
        0 -1 147549 -5.1431865431368351e-03</internalNodes>
      <leafValues>
        1.7585529386997223e-01 -7.4310660362243652e-02</leafValues></_>
    <_>
      <internalNodes>
        0 -1 2202 -8.8717683684080839e-04</internalNodes>
      <leafValues>
        1.6028375923633575e-01 -6.8023808300495148e-02</leafValues></_>
    <_>
      <internalNodes>
        0 -1 154819 -5.0140463281422853e-04</internalNodes>
      <leafValues>
        -2.3694093525409698e-01 4.7569930553436279e-02</leafValues></_>
    <_>
      <internalNodes>
        0 -1 164007 -4.1137067601084709e-03</internalNodes>
      <leafValues>
        -5.3541785478591919e-01 2.3354846984148026e-02</leafValues></_>
    <_>
      <internalNodes>
        0 -1 90171 2.9220071155577898e-04</internalNodes>
      <leafValues>
        5.2639808505773544e-02 -2.1102148294448853e-01</leafValues></_>
    <_>
      <internalNodes>
        0 -1 89694 -2.0960343535989523e-03</internalNodes>
      <leafValues>
        1.5680941939353943e-01 -8.4970362484455109e-02</leafValues></_>
    <_>
      <internalNodes>
        0 -1 154201 2.4541404854971915e-05</internalNodes>
      <leafValues>
        -1.1441422998905182e-01 1.1410015821456909e-01</leafValues></_>
    <_>
      <internalNodes>
        0 -1 101457 1.2118928134441376e-02</internalNodes>
      <leafValues>
        1.3930026441812515e-02 -7.3145109415054321e-01</leafValues></_>
    <_>
      <internalNodes>
        0 -1 145167 -3.1449079513549805e-02</internalNodes>
      <leafValues>
        6.8570125102996826e-01 -2.1112306043505669e-02</leafValues></_>
    <_>
      <internalNodes>
        0 -1 157945 1.5710391744505614e-04</internalNodes>
      <leafValues>
        1.1059146374464035e-01 -1.1681521683931351e-01</leafValues></_>
    <_>
      <internalNodes>
        0 -1 175937 -2.5222680051228963e-05</internalNodes>
      <leafValues>
        1.2781132757663727e-01 -8.9772842824459076e-02</leafValues></_>
    <_>
      <internalNodes>
        0 -1 175713 -5.4366509430110455e-03</internalNodes>
      <leafValues>
        9.5680974423885345e-02 -1.2042901664972305e-01</leafValues></_>
    <_>
      <internalNodes>
        0 -1 120450 -1.0479976981878281e-01</internalNodes>
      <leafValues>
        4.1117936372756958e-01 -3.6025106906890869e-02</leafValues></_>
    <_>
      <internalNodes>
        0 -1 25781 -2.3311802744865417e-01</internalNodes>
      <leafValues>
        -4.8433357477188110e-01 2.8742756694555283e-02</leafValues></_>
    <_>
      <internalNodes>
        0 -1 94527 -6.7087128758430481e-02</internalNodes>
      <leafValues>
        3.6135387420654297e-01 -4.1034925729036331e-02</leafValues></_>
    <_>
      <internalNodes>
        0 -1 22245 -4.5446548610925674e-03</internalNodes>
      <leafValues>
        1.0008152574300766e-01 -1.2405718863010406e-01</leafValues></_>
    <_>
      <internalNodes>
        0 -1 170198 -9.5438864082098007e-03</internalNodes>
      <leafValues>
        -4.4819143414497375e-01 2.6104887947440147e-02</leafValues></_>
    <_>
      <internalNodes>
        0 -1 540 -1.4548610150814056e-01</internalNodes>
      <leafValues>
        -5.4714655876159668e-01 2.0310889929533005e-02</leafValues></_>
    <_>
      <internalNodes>
        0 -1 172702 -3.7472732365131378e-03</internalNodes>
      <leafValues>
        1.4782643318176270e-01 -8.5156664252281189e-02</leafValues></_>
    <_>
      <internalNodes>
        0 -1 133542 2.6241160230711102e-04</internalNodes>
      <leafValues>
        6.6411733627319336e-02 -1.9767755270004272e-01</leafValues></_>
    <_>
      <internalNodes>
        0 -1 89512 -3.2458445057272911e-03</internalNodes>
      <leafValues>
        1.5198536217212677e-01 -9.0575180947780609e-02</leafValues></_>
    <_>
      <internalNodes>
        0 -1 13894 8.5238050669431686e-03</internalNodes>
      <leafValues>
        -3.7626780569553375e-02 3.5584720969200134e-01</leafValues></_>
    <_>
      <internalNodes>
        0 -1 126178 2.0230621157679707e-04</internalNodes>
      <leafValues>
        7.5935527682304382e-02 -1.7513784766197205e-01</leafValues></_>
    <_>
      <internalNodes>
        0 -1 175638 -1.4627058990299702e-02</internalNodes>
      <leafValues>
        -3.2649868726730347e-01 3.6898326128721237e-02</leafValues></_></weakClassifiers></stage18>
</opencv_storage>
